Language model created by QuickLM on Wed Jul 19 21:09:09 EDT 2017
Copyright (c) 1996-2010 Carnegie Mellon University and Alexander I. Rudnicky

The model is in standard ARPA format, designed by Doug Paul while he was at MITRE.

The code that was used to produce this language model is available in Open Source.
Please visit http://www.speech.cs.cmu.edu/tools/ for more information

The (fixed) discount mass is 0.5. The backoffs are computed using the ratio method.
This model based on a corpus of 4 sentences and 7 words

\data\
ngram 1=7
ngram 2=9
ngram 3=6

\1-grams:
-0.8451 </s> -0.3010
-0.8451 <s> -0.2341
-1.4472 ACTIVATE -0.2341
-1.4472 BEGIN -0.2688
-1.1461 SEARCHING -0.2341
-1.4472 SHUTDOWN -0.2341
-1.4472 STOP -0.2688

\2-grams:
-0.9031 <s> ACTIVATE 0.0000
-0.9031 <s> BEGIN 0.0000
-0.9031 <s> SHUTDOWN 0.0000
-0.9031 <s> STOP 0.0000
-0.3010 ACTIVATE </s> -0.3010
-0.3010 BEGIN SEARCHING 0.0000
-0.3010 SEARCHING </s> -0.3010
-0.3010 SHUTDOWN </s> -0.3010
-0.3010 STOP SEARCHING 0.0000

\3-grams:
-0.3010 <s> ACTIVATE </s>
-0.3010 <s> BEGIN SEARCHING
-0.3010 <s> SHUTDOWN </s>
-0.3010 <s> STOP SEARCHING
-0.3010 BEGIN SEARCHING </s>
-0.3010 STOP SEARCHING </s>

\end\
